#include<iostream>
using namespace std;


void dense1(float conc_out[128], float dense1_out[32])
{

	float bias[32] = {0.1392815411,-0.0173069201,
				-0.0167067293,
				0.1496037543,
				0.1314691007,
				-0.0104455566,
				-0.0125027029,
				0.1598601043,
				-0.0220930502,
				-0.0104490593,
				-0.0121778296,
				0.1497788131,
				-0.0110297855,
				0.1346552372,
				-0.0085102022,
				0.1611419618,
				0.1382830441,
				-0.0060054571,
				-0.0148633057,
				0.1412554830,
				0.1759657413,
				-0.0160184316,
				0.1317598820,
				0.1359787583,
				-0.0153562222,
				-0.0157086290,
				0.1442550123,
				-0.0247119330,
				-0.0112291276,
				0.1592768133,
				0.1319135875,
				-0.0130422497};

	for(int i = 0; i < 32; i++) dense1_out[i] = bias[i];


	float weights[32][128] = {{-0.0063859588, 0.3240643442, 0.0036219500, 0.0513746664, -0.1638144702, 0.1255537122, 0.2023218274, 0.1249449030, 0.0365793034, 0.2608082592, 0.3675492108, -0.3108250201, 0.2096401900, 0.2700858712, 0.3721922934, 0.2339368165, 0.1019464359, 0.3091056943, -0.0105396230, -0.3072368503, 0.2535470426, -0.1344640404, 0.0129356002, -0.2458823174, 0.1205419004, -0.2509109080, -0.0746984333, -0.2831129134, 0.2485570610, 0.3221085072, 0.3068851531, 0.2952617109, -0.3247014284, -0.1202591360, 0.3262331784, 0.1961285472, -0.0636258349, -0.2968249619, 0.2483761013, 0.2889396250, 0.3574018180, 0.2701714635, -0.1821509451, -0.2957387567, 0.1519254446, -0.3096212149, 0.2023158073, -0.1472381204, 0.2953229547, 0.0102282846, 0.1433681846, 0.3049339652, -0.1599440277, -0.1032641605, 0.3205211461, -0.2911196351, -0.2068627775, 0.2075924426, -0.2773835063, -0.0507020168, -0.0050833495, 0.0010319768, -0.0008757673, -0.1812523156, -0.2346348166, 0.2443732321, -0.3620821238, -0.1470969468, 0.0043374524, 0.3555831313, 0.2036487907, 0.0868928209, 0.3643926978, -0.3379918635, 0.0282951072, -0.0092301518, 0.3697045147, 0.2845407426, -0.2646157146, 0.1057578474, 0.3710348606, -0.3071779907, 0.1560439616, -0.1601536125, -0.2571198344, -0.1974347979, 0.2466183007, 0.2145688832, 0.0298342556, -0.0117136976, -0.1112857908, 0.0391621180, 0.2427409142, -0.1671792418, 0.0279029962, -0.3108461201, 0.1963910908, 0.2043985128, -0.0129090538, -0.3083512783, -0.3432618678, 0.2255972326, 0.2876924872, 0.3299786747, -0.0173125491, -0.1628810614, -0.1201884076, 0.2537415028, -0.2027160078, 0.1861605644, 0.0755562708, 0.3257724643, -0.2120579481, 0.2577225566, -0.0135021796, -0.1758902073, 0.3187046349, -0.1324433982, -0.1329644024, -0.1506854743, 0.2989914119, -0.0442645811, 0.3085772395, 0.0274840575, -0.1677616835, -0.3672430515, -0.2781266272, 0.1442572773},
			{0.1324213296, 0.0077617201, -0.0646325201, 0.1406971961, -0.0621566996, -0.1574827284, 0.0060595842, -0.0485630147, 0.1388020664, -0.0090123042, 0.1260208040, 0.1478353292, 0.0495521128, -0.1874841601, 0.0285851657, -0.0261079632, -0.1463285983, 0.1636939198, 0.1867861152, 0.1555663645, -0.0363173559, -0.0080312025, -0.1595976055, -0.0516462103, -0.1499844790, 0.1705963761, -0.0167064760, 0.0468205325, -0.1320451498, -0.1971987486, 0.1813483983, -0.2018935680, 0.0998853296, -0.1777752340, -0.0409767367, 0.1069276035, -0.0889431685, -0.1048093364, -0.0393913016, -0.1488555670, 0.1475063264, -0.0371686965, 0.0126832016, -0.1975830495, -0.0388609022, 0.0956748575, 0.1730975658, -0.0127329789, 0.0890587047, -0.1387729794, -0.1263005435, -0.0818264410, -0.1225808263, -0.1676459014, -0.0139531065, 0.0896311998, -0.0745717958, 0.0429647043, -0.0899509564, 0.1302650273, -0.1620454639, -0.0270664580, 0.1078591943, 0.0980229154, 0.0977269858, -0.0079559246, 0.0693882853, 0.0672288015, -0.0570400767, -0.0741750151, -0.0015676336, -0.0048196930, -0.0610454567, 0.0870535597, -0.0792596713, -0.1058040857, -0.2012985051, -0.1337945461, -0.1010569036, -0.0207108632, -0.0010631194, -0.1068167314, 0.0149684949, -0.0655476302, 0.0886400864, 0.1032365337, -0.0808301643, 0.0520057864, -0.0304676816, 0.0000890938, -0.1513601542, -0.1818156242, -0.0275280084, -0.0468720011, 0.0299896896, 0.1123040095, -0.0380682684, -0.1488646418, 0.0459352434, 0.1603766680, -0.1603327245, -0.0950404033, -0.0050567663, -0.1007530168, 0.0421614870, 0.1114737839, 0.1207311973, 0.0586534180, -0.0709360540, -0.0048811221, -0.0864360482, 0.0019398339, 0.1500260979, 0.1576675177, 0.1628604084, -0.1276324391, -0.1806820929, 0.1699507087, 0.0469184071, 0.0871834978, 0.0738651007, -0.1293026358, -0.1654062271, 0.0365255326, -0.0942992866, -0.0476794429, 0.0131957754, 0.0396938771},
			{0.0085837413, -0.0898732468, -0.1295771897, 0.0797040835, -0.1319421530, 0.0544074215, 0.0101370914, 0.0624124072, -0.0645429790, -0.1264507174, -0.0164921880, 0.1646880060, -0.0226256810, -0.1359937191, -0.1197110191, 0.0269111022, -0.1715454012, 0.1480323374, -0.0556898005, 0.0662087277, 0.0975782499, -0.1003893688, -0.1934362054, -0.1404315680, -0.1551514119, 0.2041204870, -0.1759558618, 0.0647836626, -0.1409526318, 0.1065847650, -0.1106045172, -0.1028809026, -0.0670470521, 0.1069653109, 0.0283325445, 0.0558050722, -0.0203450210, -0.0213020425, 0.0621071123, -0.1138493344, 0.1205134615, 0.1339283437, 0.1290792972, 0.0099773649, -0.1580012143, -0.1197126284, 0.1021935344, -0.1859558076, 0.0947082341, 0.0662875399, -0.1008942053, 0.0155094536, -0.0511373505, -0.0240888689, -0.1002531797, 0.1238533556, 0.1603359580, 0.1436773241, 0.0033698566, 0.1265922785, 0.1035974026, -0.0224582888, -0.0357650779, 0.1823113412, -0.0416600779, -0.1007310525, -0.1174908355, 0.0566553995, 0.0462946109, -0.0283277389, -0.0855545923, 0.0792805329, -0.1842274219, -0.0498521738, -0.1157004014, -0.0978578106, -0.0608374737, 0.0353671946, -0.1716484129, -0.1517934352, -0.0907066315, 0.0125849890, -0.0254479442, -0.0476792306, 0.0041797329, -0.0723903477, -0.1193133369, -0.1177271232, 0.1423637122, 0.1967955679, 0.0646203607, -0.1122748330, -0.1353962719, 0.1048840582, 0.1710968912, -0.1153898761, 0.0932862461, 0.0336302295, 0.1564722955, 0.0153748607, -0.1399698257, -0.0648268536, 0.0303771775, 0.1719515771, 0.1163832024, -0.1092778072, 0.1978171319, 0.1789709032, -0.0375766903, 0.0213086773, 0.1124253199, -0.0203837510, -0.0123281106, 0.0691946745, 0.0700399056, 0.0733517334, -0.0010646395, -0.0139247319, -0.1137891486, 0.1156066284, 0.0214867070, -0.1363377273, 0.1447115391, -0.0848428085, 0.1935260147, -0.1425836831, 0.1044942737, 0.0722126737},
			{0.1625544578, 0.0168054178, -0.3130630255, 0.3403130770, -0.3503120244, 0.2091949284, 0.1518162936, 0.0723178685, -0.0418263227, 0.3381282389, 0.0244116653, -0.2621994317, 0.2581803203, 0.2013491392, 0.3499363959, 0.2802384794, 0.1109184027, 0.1248307899, 0.1412419379, -0.1683984548, 0.1415469497, -0.2169385701, 0.0389737897, -0.1707274765, 0.3028769195, -0.0952038020, -0.0981022865, -0.2368009984, 0.3039026856, 0.1087942347, 0.0542733818, 0.1976667792, -0.1960436106, -0.0557596162, 0.0730960295, 0.3601323366, -0.2445499152, -0.0497477129, 0.3407748640, 0.0248951428, 0.3420876265, 0.2370895296, 0.0531296209, -0.0459975079, 0.0752170160, 0.0044013998, 0.2165889889, -0.2721768320, 0.3209395409, 0.0450321399, 0.3410761952, 0.2910291851, -0.0591655076, -0.0714735091, 0.0297383014, -0.1763945967, -0.1751909256, 0.3342354894, -0.0626984835, -0.1671121567, -0.3410586417, -0.0010449752, 0.1988903582, -0.1051338241, -0.0783705115, 0.2077122480, -0.2838509083, -0.3148805499, 0.2187536806, 0.3232392967, 0.1525709778, 0.1312230974, 0.0397694930, -0.1367028803, 0.3010375798, -0.3282890022, 0.2414034754, 0.3813952506, -0.2547488213, 0.3344376683, 0.3112914264, -0.2754441798, 0.2538664639, -0.2220115066, -0.0121437591, -0.1043189615, 0.1843750030, -0.0216502212, 0.0574093498, -0.3171440363, -0.0523715690, 0.0777405426, 0.3117873967, -0.2516221702, 0.2273629606, -0.2760908902, 0.2647066116, 0.3449030817, -0.1648423523, -0.0109944409, -0.2357482761, 0.2920632660, 0.3686943650, 0.2553981245, 0.2994037569, -0.2668275535, -0.1114978194, 0.1725899726, -0.3148948550, 0.3428144455, 0.1139538735, 0.1574762464, 0.0008639033, 0.2520311475, 0.0164356232, -0.2959071696, 0.0423257835, -0.0707154498, -0.0189431626, -0.0643249452, 0.1107919887, -0.0704465583, 0.0348930471, 0.2328617722, -0.2985945940, 0.0003063416, -0.1007558852, 0.3185321689},
			{0.1949064285, 0.0063677435, -0.1077888757, 0.2792026699, -0.0863486379, 0.2390625626, 0.1641613990, 0.1070282981, 0.0421869755, -0.0205911230, 0.0221991763, -0.1850793362, 0.2691859305, 0.0256432984, 0.0698907897, 0.1383099705, 0.3481410742, 0.1157831848, 0.1638017893, -0.1115204021, 0.1611035764, -0.1605577320, 0.2352929115, -0.3035636544, 0.1942362785, -0.2189172953, -0.1538789868, -0.2900231183, 0.1637666225, 0.0924065262, 0.2553968728, -0.0047859289, -0.3346646726, -0.2730425894, 0.0507585742, 0.1841116250, -0.1540762484, -0.1919448972, 0.3307343423, 0.3439205587, 0.1548277438, 0.1380771846, -0.2954929471, -0.2037101239, 0.1639201492, -0.2804234624, 0.0576635674, -0.0596666671, 0.3418918848, 0.2258316278, 0.0737117305, 0.2425283343, -0.0260151550, -0.3420270681, 0.1914488971, -0.3349553049, -0.2285740077, 0.0222997908, -0.1940488517, -0.1076543629, -0.2941693366, 0.2247197777, -0.0185192563, -0.0778464675, -0.1639653742, 0.2200863808, -0.0113740042, -0.2310386598, 0.2957277894, 0.0931815207, -0.0257716011, 0.1911323220, -0.0185071155, -0.2219905853, 0.0899413899, -0.1361824423, 0.0892602280, 0.1978269964, -0.0235069077, 0.3070146739, 0.1762019396, -0.2660571635, -0.0121200988, -0.1454962939, -0.1319057345, -0.0514916144, 0.2568857074, 0.1926834434, 0.1785266697, 0.0449019708, -0.0231347810, 0.3088716865, 0.0866357535, -0.3414978385, 0.0147590302, -0.0592655092, 0.0319033153, -0.0171949472, -0.0431011133, -0.0797433630, -0.1963902563, 0.0016117359, 0.1860552132, 0.2826146483, 0.2790372670, -0.1485839337, -0.2229710966, 0.3165603578, -0.1217881069, 0.1807095706, 0.2649373710, 0.0598712824, -0.2860325277, 0.1621261090, 0.1988712102, -0.1629363447, 0.1726137847, -0.1997218281, -0.0148440171, -0.2242792845, 0.2874673903, -0.0663311034, 0.2401332259, -0.0047439174, -0.1103741080, -0.0246727113, -0.2271138281, 0.3138358593},
			{0.0317138061, 0.1161496267, 0.0998218358, 0.0442720614, 0.0369906016, -0.1774110943, 0.0303081218, 0.0962639600, -0.0572779067, 0.1322478205, 0.0870637521, -0.1722583026, -0.0962026790, -0.0356262662, -0.0487061366, -0.0096835131, -0.1770638824, -0.1175253093, -0.0705772638, -0.0685991570, -0.0718524233, -0.0778857619, -0.0628278852, 0.0140484013, 0.0813584849, 0.0732377172, 0.1386315376, 0.0527574420, -0.0422102772, -0.0301483329, -0.0397002399, 0.0788435712, -0.1666690409, 0.0671298504, -0.2035886794, -0.0313732289, -0.0440813862, -0.0533209071, -0.0620782301, -0.1845393628, 0.0995882824, -0.0977846161, 0.0481365621, 0.0083677955, -0.0310071874, 0.2002362013, -0.1195986569, 0.0176215824, 0.1515638679, 0.1805505902, -0.1487885863, -0.2022030950, -0.1765947789, 0.1008222029, -0.0850352496, -0.1117352843, 0.1210279763, 0.1457280219, 0.0729805753, -0.0842995122, 0.0002393952, 0.1714358926, -0.0197684336, -0.0512561053, -0.1324534714, 0.1690043658, 0.1253163964, 0.0378620960, 0.0152665516, -0.0252048355, -0.0882732570, 0.1807599664, -0.0699225366, 0.1719907820, 0.1023596227, 0.1612368971, 0.0230107345, -0.1801695079, -0.0428854190, -0.0281187780, 0.0685140863, 0.1971647441, 0.0514422022, 0.1667701155, -0.1569392085, -0.1779850125, -0.1179658324, -0.1334010959, 0.1009970307, 0.1657367796, -0.0305413641, 0.0627392232, -0.1543727666, -0.0075330641, 0.0846530646, 0.0510773920, 0.1273513436, -0.1496802121, 0.0735238567, 0.1980170757, -0.1772340983, 0.0931452289, -0.0429166593, 0.0689344853, -0.1859014481, -0.0307264216, -0.0703338385, 0.0735202655, 0.0938462615, 0.1377609670, -0.0511711910, -0.0142106861, -0.1144226864, -0.0645180941, 0.1801520437, 0.0672448725, -0.0100805825, 0.1822923124, -0.1048767120, -0.0680055767, -0.1348313838, 0.0081243729, 0.1449426860, 0.1115393564, 0.0993079618, -0.1601371467, -0.0035773355, 0.0740421861},
			{0.1788720042, 0.0729595646, 0.1352761388, -0.0334560908, 0.1528737694, -0.1156542003, -0.1445050240, 0.0298031922, -0.0471706912, 0.0521756560, 0.0749087781, -0.1374943405, 0.1843686402, 0.1707719713, 0.1413937360, -0.0466541424, 0.1436252296, 0.1152531132, 0.1885519624, 0.1468062848, -0.0575911589, 0.0786964893, -0.1110543758, -0.0108603975, -0.1042298898, 0.1998941004, -0.0764310211, 0.0575817898, -0.0890312567, 0.0402089432, -0.1703811735, -0.0742323548, 0.1137207970, 0.1766994745, 0.1374608278, -0.1243410334, 0.1949351579, -0.1486053765, 0.0401888676, -0.1991265714, 0.1680907309, 0.1473090649, 0.1412014663, -0.1277131885, -0.1640002280, -0.0166903082, -0.1605196446, -0.1643865108, -0.0860190392, -0.0604659207, 0.1728913933, 0.0613397919, -0.0218860619, -0.1335553378, -0.1149271205, -0.1234361157, 0.1317822486, -0.0941068381, 0.1257572472, 0.1602263302, -0.0950375572, -0.0962123796, 0.1163374782, 0.0296378322, -0.0453315563, -0.0632390305, 0.0903443396, 0.0740707889, 0.1445783973, 0.0464155115, -0.1777332127, -0.0449037179, -0.0378849842, -0.1265781522, 0.1208206192, 0.0029694915, 0.0924822092, 0.1934750676, -0.0078600086, 0.0831587836, -0.1567670256, -0.1541360319, -0.0691124499, -0.1668118536, 0.1817496121, -0.0018242158, 0.0720394850, 0.0672633350, -0.1225756258, -0.0464709662, 0.1039893627, -0.0837676823, -0.1649690121, 0.0713080615, -0.1372317523, -0.0977896452, -0.0196612999, 0.1050063446, 0.1291564852, 0.0670722723, -0.1667767763, 0.1131394953, -0.2026850134, 0.1489454657, 0.1002829596, -0.0829252079, 0.1062341928, -0.1130443290, -0.0402745381, -0.0457254201, 0.1437326819, -0.0982063711, 0.1135005876, -0.0340211540, -0.0829421654, 0.1611816883, 0.0082292855, 0.0501849465, -0.1377678216, -0.0347676389, 0.0787161663, 0.1451766044, -0.1052438468, 0.0972720012, 0.0916379243, -0.1116086990, 0.1656188518, -0.0702219382},
			{0.0807846561, 0.2311646640, -0.1067678556, 0.3323957026, -0.3086399734, 0.2964670658, 0.3246211112, 0.1917678565, 0.2750331759, 0.2352412343, 0.2765964866, -0.2538267672, -0.0074225008, 0.2200964689, 0.1059562266, 0.3035934865, 0.2379097939, 0.0211636424, 0.3375476301, -0.3520438671, 0.3841330707, -0.1958426386, 0.2090464383, -0.2913154066, 0.2961930037, -0.2144683152, -0.2344096750, -0.1309427470, 0.2855181098, 0.2253937870, 0.3041598797, 0.1344394684, -0.2925454676, -0.2465856075, 0.2971694171, 0.0574945658, -0.2401700318, -0.2084062845, 0.1359693408, 0.0936476663, 0.0808429718, 0.0580611192, -0.2057228982, -0.0851206258, 0.2484432906, -0.3112257719, 0.1992182136, -0.1394002885, 0.1255716980, 0.3646666408, 0.0637263507, 0.0091933282, -0.1114460602, -0.0613475852, 0.2725171745, -0.0315587856, -0.1997727156, 0.0757805631, -0.0849665031, -0.0049318820, -0.1815395802, 0.3394147754, 0.3492447138, -0.0343373455, -0.3102796674, 0.3784825206, -0.3325750530, -0.2376704067, 0.1439400613, 0.1787578911, 0.3457455337, 0.3251891136, 0.0999732837, -0.3335717320, 0.1971916258, -0.2269970030, 0.3525161147, 0.0889595151, -0.1060955301, 0.1656667143, 0.3112808466, -0.0700190589, 0.0070923902, -0.0237493459, -0.3755394518, -0.2216089666, 0.1665361822, 0.0145302685, 0.2557956278, -0.3521423638, -0.3131189644, 0.1516741961, 0.3336516619, -0.2196022868, 0.1760480255, -0.3532580435, 0.0060522086, 0.3452951908, -0.1242339611, -0.0283877291, -0.1854355335, 0.1694731265, 0.2123517394, 0.0624718778, 0.2658939958, -0.2210374475, -0.0975047648, 0.1591235101, -0.2829694152, 0.2176328599, 0.1054562852, 0.2333894223, -0.2900121808, 0.1050015315, 0.2230715901, -0.3449322879, 0.0459274724, -0.0790000483, -0.2573874593, -0.2641331553, 0.2832494378, -0.1366185248, 0.1416955739, 0.0479870290, -0.2963692248, -0.1175646186, -0.1674793214, 0.3619270623},
			{0.1382449567, -0.0685574859, 0.1040953472, 0.1502568722, -0.1526908875, -0.0858846083, -0.0947043076, 0.1518995166, 0.0353346169, -0.0379756726, 0.0335243605, 0.0657577440, 0.1468510330, -0.1398531795, 0.0825476050, 0.0762525946, -0.0251975842, -0.0175196938, 0.1109701321, 0.1571171880, 0.0572291836, 0.2121730894, 0.1521063298, 0.0206691381, -0.1579822004, -0.1272805035, -0.0840918124, 0.0213884450, 0.0488098338, -0.0608436577, -0.1002563015, 0.1710604280, 0.0772016048, -0.0225125551, -0.1433658153, 0.0601656586, -0.1365644485, 0.0297473799, 0.1580260247, 0.1122231111, 0.1216568947, -0.0790267065, -0.0575925559, -0.1628241837, -0.1177488565, -0.0363146737, 0.1508227885, -0.1110076681, 0.1284416318, 0.1357647330, -0.0938989893, -0.1676631570, -0.1645423025, 0.1628503948, 0.0671956465, -0.0543850251, 0.0722236484, 0.0031233223, -0.1178051829, 0.0679476708, -0.1206095517, 0.0860853717, -0.0922356099, 0.0984452441, 0.1064206213, -0.1989870071, 0.1757000089, 0.0304685589, 0.0289936196, -0.1925031692, -0.0439306684, 0.0300664492, 0.0078800479, -0.0352498107, -0.0213783477, -0.1313530356, -0.1130837128, -0.1494122744, -0.0500848405, -0.0346072316, 0.1397191286, -0.1322188079, -0.0634196997, 0.0785660669, -0.1387211084, -0.0337680057, 0.1259923428, 0.0689676329, -0.1557074636, 0.1273092777, 0.1479450613, -0.0698177963, 0.1164494827, 0.1499302685, 0.1148179471, 0.0192037914, -0.1177203059, -0.1113188863, -0.1042631641, -0.0220318753, -0.1024208292, -0.1747276783, -0.0884566158, -0.1260117143, -0.1230933219, 0.1185492799, 0.1427908689, 0.1821657717, 0.0616915189, -0.1369345635, -0.0026753391, 0.0664026663, -0.1698665619, 0.0079376763, -0.1350630969, -0.1627126783, -0.1611191332, -0.0223980304, -0.1830450594, -0.1682027876, -0.1655251682, 0.0251286756, -0.0492451787, 0.0954578742, 0.1872546673, 0.1061917767, 0.1462805718, -0.0523361489},
			{0.0111462846, 0.1400980949, 0.1104048491, -0.0291131213, 0.1299325824, 0.1578881145, -0.0665938780, -0.1608206481, -0.0119414246, -0.0231541712, 0.0710819662, 0.1215935796, 0.1949174404, -0.1457375884, 0.1200046837, -0.1537414044, -0.1868247390, -0.1703175604, 0.0474852733, -0.0786234289, 0.0933036357, -0.1708409637, -0.1805822402, -0.0740834251, -0.0044509890, 0.1430755854, -0.1287531108, -0.1513413191, 0.1314311773, -0.1426616013, -0.1546743810, -0.0982076749, 0.1999402344, -0.1282174736, -0.0610350259, -0.1399975717, 0.0866676271, -0.0766563788, -0.1113119051, 0.0257836170, -0.1403135508, 0.0104856221, 0.0515931733, 0.0696380734, 0.0054515400, 0.0492812656, 0.1746827960, -0.1220121384, 0.0830142871, 0.0845771283, 0.0193528868, 0.0961933210, 0.1052227542, 0.0501783639, 0.0482574888, 0.0874156505, -0.0888863429, -0.1025887653, 0.1718480736, -0.0095723681, -0.0587013103, 0.1435921043, -0.1914966404, 0.0767693669, 0.1344304085, -0.1540107876, -0.1630598605, -0.0956421793, -0.1458272487, -0.0165776890, 0.0716325790, -0.0357700214, -0.1230290309, 0.1445183456, 0.1033303961, 0.2021400332, 0.0039070039, 0.1715594977, 0.1054168493, -0.1524479687, -0.0328762420, -0.1018263549, 0.0740311444, 0.0176298842, 0.1136339605, -0.0821975842, -0.0448073223, -0.0049514044, 0.1709593385, -0.0202212390, -0.0141714858, 0.0001344780, 0.0227199346, 0.0122934245, 0.1528051943, 0.0858536288, -0.0450389422, -0.1750805974, 0.0057634991, 0.1706796885, -0.0808921084, 0.0669528916, 0.1330832690, -0.0493790880, 0.1782733947, -0.1819969118, -0.0193108693, 0.0618027784, 0.1005124003, 0.1650732756, -0.1390928328, -0.1842090338, 0.1149716154, -0.1704011112, 0.1493276358, 0.1671367586, 0.0215188861, 0.0938162282, -0.0867847279, -0.0933301598, -0.0606723651, -0.0715029761, -0.0880355835, -0.0493708737, 0.1351138651, 0.0077309348, -0.1823044270, -0.0952279344},
			{-0.0372289456, 0.0531616397, -0.0722852424, -0.2015924007, 0.0505206846, -0.1373418868, -0.0685798451, -0.0289494526, 0.0061701839, 0.0671962872, 0.1282705367, -0.1474689543, -0.1446946859, 0.0995145515, 0.1268324852, 0.0949576497, -0.1734314710, 0.1657637805, -0.1515580416, -0.1175323576, 0.0215602480, 0.1962415278, 0.0921164081, 0.1028771996, -0.0077427309, -0.1354652047, 0.1507996917, -0.1212884933, 0.1355183572, -0.1780545712, -0.1806033701, -0.0600545369, -0.0581249297, -0.1376179308, 0.1376037151, 0.1160007343, -0.0170882437, -0.0567636751, -0.0871528462, 0.0578433275, -0.1120972186, 0.0678063110, -0.1981401443, -0.0472084321, -0.2036089152, -0.0987231508, 0.0348926410, -0.0818331689, 0.0406560227, -0.1017951965, -0.1859062761, 0.0741527900, 0.2034207135, -0.0213975217, -0.1193401292, 0.0239168853, -0.1555685550, 0.0903402492, 0.0770070255, -0.0734355450, -0.1216953769, 0.1233775318, 0.1636662483, -0.0512009263, 0.0281060021, 0.1044300795, -0.0793263018, -0.1251713783, -0.1492916197, 0.1521998942, 0.0310292467, 0.0626375899, 0.0395371616, 0.1281366199, 0.1084609032, 0.2041745484, 0.1387540847, -0.1441787779, -0.0301604606, -0.1421566159, 0.0875970647, 0.1422396302, -0.2034997046, 0.0178671498, 0.1584198028, -0.0043632495, -0.1851233542, -0.1912273467, 0.0993697494, 0.1317866594, -0.1324571520, -0.0347643308, 0.0010001501, 0.2056229860, 0.0425754152, 0.1798665673, 0.0200085584, -0.1934305131, -0.1590235680, 0.1865797043, 0.0172929037, -0.0734613314, 0.0508827269, 0.1217490509, 0.0232183449, 0.0057815881, -0.1075925082, -0.0535437688, 0.0418800749, -0.0434205346, 0.0163922235, -0.1315263808, 0.1055786610, 0.1741672307, -0.0222228598, 0.0603144653, 0.0538116954, 0.1594425291, -0.1565093398, -0.0025723341, -0.0687466785, 0.1966568828, -0.1801474690, -0.1716071516, -0.1071743742, -0.0466105081, -0.1210209280, -0.0953943953},
			{0.0147600509, 0.0537449419, -0.2293068618, 0.3392153680, -0.1036432534, 0.0731885880, 0.2902356386, 0.0081462897, 0.2931033075, 0.0728370473, 0.2021882236, -0.0645661727, 0.3392959535, 0.1187525392, 0.2087534815, 0.1402379870, 0.1152597964, 0.0212105382, 0.3237474263, -0.1665000618, 0.1472760439, -0.3002599776, 0.0088534048, -0.2381776571, 0.3395670354, -0.0450621806, -0.0771174729, 0.0057786279, 0.2821320295, 0.2148981988, 0.0646223202, 0.2805780470, -0.2067205906, -0.1127229184, 0.1129534841, 0.2125914544, -0.2405070662, -0.2073959261, 0.3048227727, 0.2726591527, 0.1291376948, 0.1143777668, -0.0630847886, -0.1934788227, 0.2534848452, -0.3334473670, 0.2951588631, -0.0945560113, 0.3213322163, 0.1782110482, 0.3314355612, 0.2736897171, -0.2169357985, -0.2568677068, 0.0964508280, -0.0667839199, -0.1347528994, 0.2759793997, 0.0225150958, -0.3592579067, -0.0029716119, 0.3539242148, 0.3652184904, -0.2020639330, -0.2806973457, 0.1050733700, -0.3584643602, -0.3317468464, 0.2596977651, 0.3524015844, 0.3481999934, 0.3174645007, 0.2525866628, -0.1458345950, 0.1678262055, -0.0817437619, 0.1417340189, 0.1832819283, -0.2824511230, 0.2368284762, 0.1516425908, -0.1721967459, 0.1903788447, -0.2761812806, -0.2249432504, -0.0623798519, 0.1545180380, 0.3054887652, 0.1085666642, -0.2742967606, -0.1107508242, 0.3362658322, 0.0980371758, -0.3606057763, 0.3500766456, -0.0148856081, -0.0034522226, 0.1373690069, -0.3130945861, -0.1386485249, -0.3099322915, 0.2376831174, 0.2866550386, 0.2845747471, 0.0219064914, -0.0030792942, -0.3706158400, 0.1171732321, -0.1241825670, 0.1924409717, 0.3362005651, 0.1207297966, -0.2668610513, 0.2492377460, 0.2200528085, -0.0325400941, 0.3020198643, -0.3365304470, -0.3127720058, -0.3132793009, 0.0091049569, -0.2173347920, 0.2879408896, 0.2240824401, -0.0377647392, -0.2048780024, -0.0001317804, 0.2437249273},
			{0.1050956026, -0.0911381692, -0.1122700498, 0.1745588332, -0.1372827590, -0.1865746081, -0.1532129198, 0.0813300684, 0.1626023203, -0.0918618068, -0.0873276219, 0.1538542807, 0.0111840544, -0.0072332416, -0.0404898860, -0.0668195710, 0.1503381729, 0.0864106119, -0.1478851587, 0.1470813602, -0.1476112902, 0.1203418672, 0.1379224807, -0.1188047081, -0.1157770753, 0.1021035090, 0.1271436512, -0.0657039136, -0.1066207886, -0.0272611156, -0.0074966601, 0.0107205883, 0.0522180386, 0.0498608649, -0.0902729481, 0.0460298732, 0.0278868619, 0.0423128903, 0.0404859334, -0.0813282728, 0.0734414980, 0.1309450418, -0.1587858498, 0.1084813252, -0.0969255492, 0.1944640130, -0.1628791839, -0.1163708866, -0.1497637928, -0.0503422283, 0.0473622084, -0.1697045416, -0.1086112335, 0.1543513387, -0.0259260535, -0.1336576045, -0.1680424064, 0.1269777268, 0.0099662896, -0.0380751304, 0.1305009276, 0.1299504042, 0.0202459097, -0.1768062860, 0.1091923714, -0.1413667649, 0.0878436714, -0.0901602879, -0.1450770199, 0.1751471013, 0.0579695292, 0.0908921584, 0.0196869243, -0.1321299225, -0.1339783221, -0.1020469069, -0.0598540865, -0.0601232387, 0.1079087108, 0.0679277405, 0.1358729452, 0.1830351502, 0.1401375085, -0.0716651902, -0.1556746811, 0.1692435592, -0.1007094532, 0.0662685484, 0.0200833026, 0.1744455546, 0.0323449746, 0.0083488338, -0.1126408055, -0.1212781891, 0.0058367639, 0.0261790641, 0.1064709201, 0.1213336885, -0.1163742691, 0.1912011206, 0.1063011661, 0.0598239824, -0.1213758513, 0.0192972925, 0.1626360416, 0.1728112549, -0.1123780683, -0.1736610234, -0.0358363166, -0.0215166938, 0.0135979513, 0.0316994414, -0.1215599477, -0.1909538954, 0.0773506314, -0.0414843969, -0.1043354645, -0.0312338546, -0.0669320375, 0.1800184399, -0.0185735226, 0.0878279805, -0.1187254563, 0.1721817255, 0.1089889482, 0.0087199416, -0.1575894207, -0.1966213733},
			{0.2821539938, 0.2611755133, -0.2510819137, 0.1969309300, -0.2150958478, 0.1051389277, 0.2883225977, 0.0582045279, 0.3253777325, 0.0272331946, 0.3531090021, -0.0910886452, 0.3321171403, -0.0134962788, 0.0349207893, 0.2619434893, 0.3063428998, 0.2499693185, 0.1916832477, -0.1039267108, 0.0736490265, -0.0847743824, 0.2669684291, -0.2141331136, 0.3259740472, -0.1810402423, -0.0243547987, -0.2497749627, 0.2429577708, 0.2471298575, 0.3330667913, 0.0748171508, -0.0508019328, -0.3245683908, 0.2268972546, 0.2712988257, -0.2739757001, 0.0021868034, 0.3218081892, 0.1886874735, 0.0605649203, 0.2193565071, -0.0082806069, -0.1068072841, 0.1686962545, -0.3084990084, 0.1167342290, -0.3646546304, 0.2248061597, 0.3166959584, 0.1346668005, 0.0525713004, -0.3423423469, -0.3220169842, 0.3494113088, -0.3513035178, -0.1670077294, 0.3245347738, -0.3051006496, -0.0880357549, -0.1919329315, 0.2244960517, 0.3084873855, -0.1327915490, -0.2358637005, 0.1039518118, -0.3504118025, -0.0920231789, 0.0086881761, 0.0572069921, 0.0826238990, 0.1451485157, 0.0353451036, -0.1765527427, 0.2494196892, -0.3325489759, 0.1591642499, 0.2961571813, -0.2612916529, -0.0219861567, 0.0003736195, -0.1467996091, 0.2090375721, -0.0622723028, -0.3259383440, -0.0134251229, 0.1396181136, 0.3485985398, 0.1404633075, -0.3344173729, -0.2269818038, 0.2862080634, 0.2965894938, -0.2081376761, 0.0564785451, -0.0262049101, 0.3172117472, 0.1509777457, -0.2759587765, -0.1001289263, -0.3524763286, 0.2209235877, 0.2472307682, 0.3054193854, 0.2519024909, -0.1278634071, 0.0146179842, 0.0785589069, -0.2601830661, 0.3934372067, 0.2370722890, 0.3491539657, -0.3034856021, 0.0414247029, 0.3289197385, -0.0282103308, 0.1163131371, -0.2673837543, -0.3090998530, -0.0129073421, 0.1002998427, -0.2942648828, 0.0933135003, 0.0855654329, -0.3320459425, -0.2280237377, -0.2904358506, 0.2730144262},
			{-0.1562830359, -0.0988148674, -0.1472596675, -0.0384138301, 0.1406533122, -0.1815650463, 0.0481128283, -0.0038364169, -0.1102835014, 0.1969671994, 0.0095662298, 0.1113700643, 0.1910417080, -0.1803468019, 0.0475478023, 0.0550242364, 0.1426974386, -0.1240708753, 0.1784316748, -0.1556818783, 0.1531792581, -0.0760808662, -0.1104945540, 0.1313334852, -0.1926414371, -0.0912267119, -0.0988856852, -0.0871180072, -0.1320935190, 0.1408002675, 0.1218943074, -0.1133781672, -0.1461044997, -0.1275712103, -0.1427893192, 0.0742414966, -0.1173655614, 0.1334703863, -0.0885357335, -0.1685626954, 0.0641827062, -0.0895672888, -0.1736389697, 0.1105702296, -0.1667085588, 0.0103243990, -0.1022736654, 0.1997910440, -0.0714874715, -0.0682323202, -0.1769060940, -0.1848176420, 0.1537092328, 0.0159473866, -0.1864005029, -0.1380782425, 0.1229819879, -0.1461732537, -0.1837358773, -0.1324449778, 0.1313741803, 0.0774220526, 0.1176909283, 0.1753478199, -0.0024130978, 0.1696175188, 0.1593555510, -0.0793407410, 0.0916559398, 0.0479019731, 0.0428254567, 0.1689656675, -0.0999225900, -0.0173102263, -0.0078352261, -0.1452145875, -0.0187985674, 0.1967904419, 0.1096489131, 0.1495622396, 0.0483504161, -0.1164904311, -0.1233752519, 0.0759797767, -0.0689024031, 0.1720876694, 0.0766863301, 0.0395890661, 0.1396232247, -0.0557503067, 0.0082375184, -0.0740487501, 0.1902184635, -0.0983320400, 0.1241256744, -0.0905613601, -0.0664233863, -0.0978883877, -0.0296349917, 0.1710351557, -0.0585446358, -0.1209613308, -0.0394870341, 0.0627666190, 0.1441134065, 0.0500290133, 0.1927283108, -0.1531557143, 0.0255560484, 0.0981292129, -0.1033882573, 0.0535851792, 0.1673238724, -0.1129020900, -0.1812654734, -0.0769039840, -0.1541846544, -0.1625669897, 0.1654994339, -0.0780370757, 0.1608254462, 0.1568881720, -0.0450468510, 0.0291902069, 0.0470746942, 0.1770912260, 0.0369203426, -0.1728657633},
			{0.0608166009, 0.0768601373, -0.3770093918, 0.2129105479, -0.1919452399, 0.3142022192, 0.2552514970, 0.3375477493, 0.1286662966, 0.3655102551, 0.3471257687, -0.1804700196, 0.2092312425, 0.0965011120, 0.3742963970, 0.0750843808, 0.3105824292, 0.1090917736, 0.0568642430, -0.0352629833, 0.2047381997, -0.3752297759, 0.3607971072, -0.3472138643, -0.0041772183, -0.1363989860, -0.3653298914, -0.2275249511, 0.2471243739, 0.2432892025, 0.3460845947, 0.0134002287, -0.0404709354, -0.0406168923, 0.1907606125, 0.0887196735, -0.1657037437, -0.1431275010, 0.2333398312, 0.0003684804, 0.3698955178, 0.3007159531, -0.1586441249, 0.0029617895, 0.1942702532, -0.2857823670, 0.2860277295, -0.2928432822, 0.2509739399, 0.1132605597, 0.1860750765, 0.0514624380, -0.2901901007, -0.1503592730, 0.2833357155, -0.2871178687, -0.0378917642, 0.1844072193, -0.0239211749, -0.2846558392, -0.2764332294, 0.2718705237, 0.0212961193, -0.4014753401, 0.0095737809, 0.1386487484, -0.1717581600, -0.0193566419, 0.0327409133, 0.1834016144, 0.1254690737, 0.1623914540, 0.1963520199, -0.1099892482, 0.0485211536, -0.2208022475, 0.2166065127, 0.1861128807, -0.2459276766, 0.3481151760, 0.3187344968, -0.1525926292, 0.0229585525, -0.2267850190, -0.3351220191, -0.2075660676, 0.3611281216, -0.0023357288, 0.1423285306, -0.0858631432, -0.1227078289, 0.3698111773, 0.1226088107, -0.3122159243, 0.2746935487, 0.0202054642, 0.2950390279, 0.0439414755, -0.3117070794, -0.3171905577, -0.1035331637, 0.0300434232, 0.3828705847, 0.3358964026, 0.0899519771, -0.2856147587, -0.3029937744, 0.3126322627, -0.3687652349, 0.1427955329, 0.2717640400, 0.0438074358, -0.1378969848, 0.2249476612, 0.2117144465, -0.2999180555, 0.3177579939, -0.1879740357, -0.2832884789, -0.2468045205, 0.1428191960, -0.2987659574, 0.2546075881, 0.2770751119, -0.0684012622, -0.1018618494, -0.1692039669, 0.0986222103},
			{0.3144811392, 0.0367741138, -0.3244841397, 0.1615715772, -0.3477882147, 0.1008782014, 0.0951502919, 0.2448368669, 0.1272172928, 0.2548806965, 0.1743169725, -0.2569948733, 0.0959228426, 0.3557615578, 0.1982882768, 0.2521518767, 0.1380762905, 0.0694956034, 0.3249159455, -0.3179350197, 0.1773769855, -0.0926538557, 0.1189394966, -0.2951147556, 0.3581209779, 0.0107746301, -0.3628840148, -0.3202505112, 0.1289429218, 0.2033549994, 0.3263267279, 0.2394163758, -0.3183206320, -0.2323469967, 0.0217680726, 0.1215924397, -0.3039117754, -0.2984311283, 0.0359339453, 0.1491925120, 0.1431726068, 0.2353625000, -0.1042543650, -0.3326383829, -0.0166235380, -0.0887844786, 0.0133728040, -0.3305850029, 0.3044949770, -0.0067183450, 0.3560108542, 0.2076302767, -0.1590613276, -0.2675177455, 0.0219795406, -0.3095918894, -0.2614499927, 0.2141415328, -0.1786095351, -0.0709416568, -0.2606666088, 0.0108976904, 0.1942837238, -0.3562654853, -0.0999836698, 0.2510051429, -0.2477973402, -0.3312563300, 0.3004558086, 0.2713602483, 0.1943692714, 0.0069159637, 0.0408020131, -0.0801148862, 0.0308871381, -0.0548900366, 0.3367088735, 0.2310256213, -0.1919861287, 0.0993675292, 0.1393225938, -0.3012502193, 0.2432939410, -0.3251952827, -0.2573247254, -0.3193192780, 0.1444855332, 0.0699930042, 0.3242542744, -0.3291116953, -0.3597766161, 0.2778022885, 0.2061153948, -0.2424573004, 0.2965389192, -0.1854992062, 0.2753515542, 0.2339559197, -0.1589704901, -0.0730204210, 0.0193195473, 0.2606036961, 0.1655344665, 0.3252711296, 0.2303933054, -0.2241133898, -0.2653036118, 0.2557684779, -0.1142691374, 0.1091143340, 0.3603547513, 0.0949059054, -0.3161776662, 0.1751222461, 0.3199599087, -0.0468092375, 0.0574440435, -0.3303460181, -0.1830528527, -0.1601410955, 0.1391208321, -0.3120754659, 0.1413964927, 0.2101208568, -0.3218943477, -0.0129113421, -0.2742590606, 0.0873736143},
			{-0.0136868469, 0.0600525662, -0.0576533228, 0.0558867045, 0.0215700455, 0.1672637910, -0.0178053416, -0.0000244796, 0.1625292748, -0.0451198705, 0.0801584572, 0.1703364998, -0.1169050857, -0.1887693405, -0.0165012721, -0.0406804346, 0.0085062198, -0.1484335363, -0.1307519823, 0.1045374647, 0.1079547778, 0.1473814100, 0.0620100126, -0.0392967686, -0.0819040537, -0.1036885902, -0.0112504046, -0.0732553378, -0.1480134428, 0.0559957623, -0.0935043767, 0.0267957225, -0.0943392143, -0.0939296931, -0.0735503361, -0.0679987222, -0.1176158339, 0.1216851622, -0.1665109992, -0.0451938584, -0.0550627112, -0.0195459407, -0.1934293807, 0.0757392794, -0.0903981775, 0.1165507361, 0.0852444991, 0.1784332395, 0.1234170496, -0.1251307428, 0.1214976311, -0.0290754493, 0.1914550364, 0.1188308001, 0.0392117463, -0.1639126092, -0.0696019754, 0.0545921884, -0.1904483587, -0.0524915010, -0.0109449113, 0.0586895607, -0.1238477007, 0.1448311359, 0.0752825662, -0.1943702251, 0.0744107366, 0.1536697596, -0.1726453304, -0.0566922575, -0.0617511719, -0.1525165141, -0.1367787719, -0.1306836158, -0.1068723202, -0.1472277790, -0.1353923678, -0.1967907399, -0.1737781316, 0.0435262471, -0.0624000728, -0.1529838294, 0.0256382693, -0.1852921844, 0.1978950351, 0.1283008605, 0.0480529480, -0.1454453319, 0.0268874820, 0.1124347150, 0.0297173969, -0.0356050692, 0.1190161556, 0.1995928586, 0.0374667533, -0.1301925480, 0.0948679596, -0.0015935452, 0.0543119945, 0.0215662569, 0.1677552015, -0.0584569685, 0.1531471908, -0.1836803257, 0.1017865315, 0.1576108932, 0.0952579454, 0.0479217470, -0.0402848087, -0.0345991887, 0.0221540462, 0.0298374798, -0.0987345427, -0.0766506940, 0.0130645214, -0.0200645290, 0.1726799607, -0.1242772788, 0.0973117277, 0.0819567367, 0.1360312998, 0.1749114096, 0.0435300358, -0.1565852910, 0.1366392225, -0.1163578257, -0.0053721992, 0.0261331573},
			{0.1585057974, 0.0617474169, -0.0478612036, 0.1471628249, 0.1299379170, 0.0443379506, -0.0316738226, -0.0789365470, -0.0380423702, -0.1327405423, 0.0891564190, -0.0504777953, 0.0275989920, -0.1643988937, -0.0926304683, 0.1150479019, -0.1453922242, -0.1067067906, -0.1379722208, -0.0333038196, -0.1747357547, 0.1022934616, -0.1172484681, -0.1886188090, 0.1010225043, -0.0646803156, -0.1552463621, 0.0210514534, 0.0003192389, 0.0127418786, 0.1059434637, 0.0570489615, 0.0881973505, -0.1430828720, 0.0950218588, -0.0598287731, 0.1702675223, -0.0603986867, -0.1347079426, -0.2092086673, 0.0315403007, -0.1554085016, 0.1543546617, 0.1968902498, -0.1298493594, 0.2022035271, -0.0742255449, 0.1387889981, -0.2079098523, -0.1156704873, 0.1409370005, -0.0647950396, 0.1774264425, 0.0216135122, 0.1509823501, -0.0133223366, 0.1297666430, 0.2013686597, 0.0474358536, -0.1121546850, -0.0602918230, -0.1939209402, 0.0423651300, 0.1920437515, -0.1233949661, -0.1759505570, 0.1493804157, -0.0138504254, -0.0630180612, 0.1512994170, 0.0054569459, -0.0579064824, -0.0506406799, -0.0824828371, -0.0224258490, 0.1452086121, -0.0639781803, -0.1163065881, -0.0804618895, -0.1565691084, -0.0606795438, -0.1256120056, 0.1232906356, 0.1885132641, -0.0416350737, -0.1453531086, 0.0615860857, -0.0513997488, 0.1140399724, 0.0678734854, -0.0417979322, -0.1610950530, 0.0451605804, 0.2044239938, -0.0201921109, 0.0017729417, 0.0680559203, -0.1399877518, -0.0666250587, -0.0260326434, -0.1029333994, 0.1519994587, 0.0715902150, 0.0307248905, 0.0670088530, 0.0194597375, -0.0178878251, 0.1343784779, 0.1433100998, -0.0771089941, -0.0750117823, 0.1300187260, 0.1785402149, -0.1628569216, 0.1063742787, -0.1270834804, 0.1517665386, -0.1444539130, -0.1644850075, -0.0492000692, -0.0215698220, 0.0492950939, -0.1108032018, 0.0253120679, 0.1873707920, 0.0987859890, 0.1033227593, -0.1585427672},
			{0.0292122643, 0.2089399844, -0.2887297869, 0.0317980014, -0.0117160762, 0.2668288350, 0.3206595778, 0.1239064932, 0.0457142740, 0.1133793667, -0.0285495911, 0.0160413086, 0.0732450411, 0.3426498175, 0.0638704747, 0.2197032869, 0.2766337991, 0.0766289234, 0.2957785726, -0.0671064481, -0.0674688518, -0.1250385195, 0.0640540421, -0.1546921581, 0.3360870779, -0.0528327152, -0.3268515170, -0.1524327695, -0.0403439254, 0.3208046257, 0.0735517964, 0.0182232745, -0.1933998764, -0.1756587476, 0.1724562198, 0.1692323536, 0.0087023284, -0.2547931671, 0.3177035451, -0.0187498461, 0.1898733526, 0.1591026038, -0.2933766246, -0.3034765124, 0.2711398005, -0.2315058857, 0.2406372726, -0.1104463935, 0.1440583467, 0.2579606175, -0.0120879998, 0.0098461853, -0.2972708642, -0.3126190603, 0.0348508060, -0.1887023747, 0.0215142798, 0.3015122712, -0.3040198684, -0.2095261067, -0.3216533661, 0.3089404404, 0.0717870593, -0.3087913692, -0.0024421769, -0.0269392896, -0.0992471576, -0.3529013693, 0.2478052378, 0.0646097958, -0.0547163785, 0.3644378185, -0.0492653362, -0.1487836838, -0.0263281316, -0.1580025703, 0.0835391060, 0.0410986766, -0.0770934001, 0.1283322275, 0.0704980791, -0.0104536228, 0.3307539225, -0.2356919944, 0.0204336699, 0.0106315343, 0.2001039088, 0.1266910881, -0.0095505184, -0.2777724564, 0.0131054055, 0.0862239972, -0.0381260552, -0.1823284626, 0.3159694076, -0.0142721087, 0.1309182048, -0.0483970605, -0.0549712591, -0.2190939486, -0.1236545146, 0.2588518560, 0.1435631067, 0.2343882471, 0.0023537183, -0.2293389291, -0.0862788185, 0.0724090785, -0.3335894644, 0.2840148509, 0.0835604891, 0.2858054042, -0.1483125985, -0.0153653100, 0.1330497414, -0.3143205643, 0.1279642731, -0.2092100382, 0.0240674336, -0.1422355920, -0.0557190925, -0.0484583415, 0.2980688810, 0.0100244908, -0.1699967980, -0.0855280012, -0.1803387702, 0.0806583092},
			{0.3091700077, 0.2562479973, -0.3560147882, 0.1087520197, -0.3418096006, 0.3009270728, 0.3891164362, 0.1257036030, 0.2298771590, 0.1224909946, 0.2272776216, -0.0039901077, 0.0923538059, 0.1652129441, 0.2821807861, 0.0971934050, 0.1251718551, 0.1119691059, 0.2604787052, -0.3362769186, 0.2615426183, -0.3031578660, 0.2950477004, -0.3763489425, 0.1569365412, -0.3552854359, -0.2899160385, -0.1534981281, 0.3562732637, 0.0365697034, 0.2346203625, 0.3886505067, -0.1685843170, -0.2280450016, 0.1746422201, 0.1381727010, -0.0413431413, -0.1275778413, 0.3553754985, 0.3258478045, 0.2438631207, 0.2096902579, -0.0367786251, -0.1257117093, 0.2151950002, -0.3981299400, 0.2049302459, -0.3906722963, 0.3659244478, 0.2041793019, 0.3224280179, 0.3299896717, -0.2398862243, -0.3713923991, 0.0275926534, -0.2324433774, -0.2731977105, 0.3584888577, -0.3360987902, -0.0756871924, -0.0717679262, 0.2984036207, 0.3048126996, -0.0962124541, -0.1194374338, 0.1907108575, -0.3174941838, -0.0683847293, 0.1522126645, 0.2647250891, 0.1324463934, 0.3017066717, 0.1579298079, -0.3083843291, 0.3997860849, -0.2136795819, 0.0906078145, 0.3810393810, -0.2547843456, 0.2100523263, 0.3020786047, -0.1425745189, 0.1522677243, -0.0554323159, -0.2854117453, -0.3277534842, 0.3283564150, 0.0812738910, 0.0359984338, -0.2940479815, -0.0591569841, 0.2157040089, 0.1977008432, -0.0144791938, 0.0115511566, 0.0054828948, 0.2652443647, 0.0929888710, -0.1256297082, -0.1424793899, -0.2719186246, 0.3041577339, 0.1873813123, 0.2880246937, 0.0072746752, -0.0130257066, -0.0411835276, 0.0467282087, -0.0875121951, -0.0320795812, 0.3178668618, 0.1945025027, -0.2513201535, 0.2234112024, 0.1993989497, -0.3703659475, 0.2392292172, -0.3490556777, -0.3601251841, -0.0590089522, 0.1854731292, -0.3937662840, 0.2522017062, 0.3474731445, -0.2690046728, -0.0322795734, -0.1767439693, 0.0460431501},
			{-0.1768198013, 0.0764648095, 0.0012923360, -0.1451451778, 0.0651599839, -0.1435040683, -0.1973478794, 0.0761219859, -0.0481255092, 0.1710340679, 0.0572601855, 0.1804090589, 0.0311444458, -0.1669490039, 0.1175761595, -0.1183377430, -0.1285174787, -0.1638140231, 0.1146142036, 0.1189293563, 0.1863910258, -0.0529288575, 0.0591069236, 0.0817013904, 0.0595468245, -0.1351317167, -0.1385857463, 0.1475591660, -0.0344752073, -0.0052376180, 0.0129701514, -0.0970051512, -0.1686360687, 0.0277710781, 0.0371463075, -0.0343674086, 0.1642738730, 0.0657044351, 0.1259411275, -0.0748735294, -0.2053936869, -0.0470124669, 0.1653722525, 0.1186390966, 0.0852446854, -0.0584509298, 0.1212026924, 0.0927813426, 0.0526890382, -0.1203605086, 0.1113429070, 0.1753223687, -0.0870899856, 0.1574645191, -0.0735920072, -0.1323206723, -0.0326454751, -0.0483434387, -0.0699598268, 0.1709617227, -0.1440659463, 0.1048548296, 0.0085710920, 0.1422380060, -0.0575319715, 0.0163887218, -0.0268268920, 0.0143267130, -0.1301592290, -0.0532838032, -0.1679690033, 0.1291503012, 0.1463963687, 0.0323174223, -0.0341749191, 0.1826803386, 0.1409419179, -0.1043332070, 0.0851071998, 0.0990729854, 0.0233019050, 0.0205742698, -0.0181706529, 0.0983663127, 0.0638668239, 0.1757874936, -0.1319638193, 0.1533377469, -0.1130509228, 0.0649691224, -0.0410593264, -0.0027239057, -0.1684444249, 0.1416740865, -0.1265890598, 0.0172909871, -0.0572739169, -0.2008276433, 0.2018981129, -0.1156301647, -0.0960850865, -0.0031020576, -0.1956848502, -0.0521102697, -0.1223510280, -0.0653449968, -0.1676261276, -0.0155181931, -0.1398790330, 0.1425186992, -0.0531934798, 0.1736452430, 0.1735345572, -0.0702351630, -0.1277795732, -0.0967467725, 0.1310354769, -0.1810522974, 0.0637581795, 0.0087478152, 0.0779176652, -0.1374888122, 0.0106020803, 0.0624093860, 0.0147926100, -0.1455944628, 0.2098827660, -0.1264213175},
			{0.1266024113, 0.0263237916, -0.1261432171, -0.0362793431, -0.2668199241, 0.2309103310, 0.3432866037, 0.2037881315, 0.2232297659, 0.2424796671, 0.0507626496, -0.0734705552, 0.1724375039, 0.3110410869, 0.3009602427, 0.2194722146, 0.2336175293, 0.2001298964, 0.0025101083, -0.2731130421, 0.3033501506, -0.1791027039, 0.1146094203, -0.2090028822, 0.1556033492, -0.1609716117, -0.2951262593, -0.3104791641, 0.0198447071, -0.0294788964, 0.1543652713, 0.2874752581, -0.2584753633, -0.2706382573, 0.2326497287, 0.0426338278, -0.2331521064, -0.2807272971, 0.3269547522, 0.0719671696, 0.0985171422, 0.1002890393, -0.1636884958, -0.0602979362, 0.1986402869, -0.0325413719, 0.0390411168, -0.1523809731, 0.0119292615, -0.0541881472, 0.2285730392, 0.1951003224, -0.2288826555, 0.0396400318, -0.0028197425, -0.0068047401, -0.2978918552, 0.0174669754, -0.0065913862, -0.2304251343, -0.3422636390, -0.0193132982, -0.0346274227, -0.0390946604, -0.1158720404, 0.2213510573, -0.1236925647, -0.3993041217, 0.1122530848, 0.2912227213, 0.2531765103, 0.0613982156, 0.3646594286, 0.0051081087, 0.1072035506, -0.3029558659, 0.0397854410, 0.0946859866, -0.0645410717, 0.1897847652, 0.2064309716, -0.1684534550, 0.2675305605, -0.2246577144, -0.3187186718, -0.0996343866, 0.1160000861, -0.0292437673, 0.2958768904, -0.1366118193, -0.3202905059, 0.3213865459, -0.0247465987, -0.0321159288, 0.2154105008, 0.0039616716, 0.0043091485, 0.0412697606, -0.0297011510, -0.1682637781, -0.2756678760, 0.2564472258, 0.2215308994, 0.3315120339, 0.0213198457, -0.2003608197, -0.2892764509, 0.0053872019, -0.2350983471, 0.5476779342, 0.1056167409, -0.0130704418, -0.2399239838, 0.1214828342, 0.1999426186, -0.3256078959, 0.0111621963, -0.2632913291, -0.2519447505, -0.3490266502, 0.0888743699, -0.1326231062, 0.2303065509, 0.1580198705, -0.3016799688, -0.1117026210, -0.3167060614, 0.0397160836},
			{0.2847750485, 0.0266068708, -0.2211004049, 0.0722454339, -0.0661651418, 0.1834267080, -0.0056430670, 0.0936371833, 0.2842167616, 0.0237820856, -0.0150229679, -0.0825932845, 0.0763726234, 0.2999902964, 0.3525744677, 0.0241655018, 0.0775986463, 0.3515664637, 0.1746497154, -0.1226657033, 0.1389005631, -0.1448254734, 0.2960470915, -0.2306684256, 0.1480675638, 0.0244707689, -0.3245068491, -0.2861511111, 0.1206806377, -0.0210371949, -0.0063713519, 0.2073591650, -0.0571768880, -0.0832102969, 0.3122345507, -0.0249799546, 0.0020289575, -0.2521986365, 0.3049624860, 0.0745602027, 0.2175939232, 0.2967982590, -0.1846101135, -0.0013520290, -0.0297727361, -0.0186321046, 0.3159006834, 0.0069040810, 0.3211725056, 0.2218390256, 0.1885870993, 0.0700885728, 0.0361530185, 0.0289650299, 0.0991407037, 0.0224446934, -0.2791132629, -0.0077070962, -0.0493130609, 0.0259959754, 0.0200186912, 0.0434480272, 0.2278005332, -0.2724913955, -0.0686963424, 0.1626225412, -0.2087640911, -0.4283613861, 0.1729212552, -0.0185978822, 0.2381814271, 0.2154436111, 0.2605041564, -0.0415054262, 0.1868080646, -0.3978137076, 0.3487760127, 0.2191789299, -0.2314995229, 0.0887801945, 0.1577071398, -0.2471643388, 0.2939187586, -0.2040505111, -0.1551780999, -0.2047537118, 0.0736679360, 0.2809160948, 0.1494790614, -0.0780009925, -0.3170195818, 0.1787985712, 0.1172096580, -0.1179831475, 0.2422141880, -0.2485395372, 0.1595916748, 0.2244496495, -0.3457475007, 0.0108574601, -0.2698612809, 0.0670990497, 0.2025646418, 0.0518342294, 0.2295149863, -0.2832855284, -0.1951621622, 0.2313815504, -0.0611426271, 0.3459626138, 0.2511701286, 0.2544430792, -0.1131769121, 0.0866312534, 0.2489042133, -0.0197838508, 0.2861419618, -0.2124655098, -0.2362680435, -0.0778278112, 0.2606951594, -0.1723021120, 0.1318858117, 0.2922610641, -0.1924851388, -0.2931793630, -0.0796562359, 0.2663695216},
			{-0.0044836090, -0.1737411022, -0.0195050519, -0.0036857871, -0.0473038480, -0.0083617819, 0.1114788279, 0.1687421501, 0.0075501935, 0.1758423150, -0.2061164677, 0.1515036672, 0.0507667921, 0.1556801051, -0.0849030763, 0.0945152119, 0.1222494021, 0.0466977023, -0.0046524480, 0.0453054048, -0.1181846708, 0.1444628388, -0.1005258486, -0.1294444799, -0.1921803057, 0.0228437819, 0.0136098079, 0.1055698469, -0.0422049649, 0.1572154909, -0.1341254860, 0.0112756100, -0.0664025247, 0.0678474680, -0.1508080959, -0.0707274005, -0.1027162075, 0.1695686579, 0.0313046277, 0.1476141214, -0.0539573804, -0.1250084490, -0.1609093994, 0.0577004477, -0.1508999467, 0.1551846862, 0.0196794923, -0.1105321944, -0.1832907647, 0.0048643537, 0.0410814546, -0.0568726473, 0.1141776294, -0.1933762282, 0.0127468184, -0.1265899986, 0.0930105224, -0.0017542477, -0.0212282706, -0.0685748234, 0.0812057704, -0.2031516433, -0.0324035771, -0.0287631303, 0.0342094898, 0.0244798027, -0.1989644915, -0.1842190325, -0.0109818531, -0.0992848277, -0.1547535211, -0.1738412976, -0.0628306195, 0.0361391008, -0.1335058063, 0.0434543528, -0.1372662038, -0.0899767503, 0.1804228872, 0.1797017157, -0.0686544180, 0.0664141327, -0.2044816464, 0.0249211732, 0.0460890792, 0.0331960469, -0.0601134524, -0.1481431574, 0.1119804606, 0.0080835558, 0.1339960247, -0.1128156856, 0.1808249503, -0.0798656642, -0.0447375812, -0.0852691978, -0.0009927640, 0.0271937791, -0.1418839395, -0.1078267619, -0.1060079858, -0.0913610533, 0.0108743822, -0.1909177899, 0.1805971414, -0.1713690162, 0.0247409623, -0.0189697389, -0.2009568810, 0.0980638936, 0.0798726678, -0.0585654676, 0.0096747298, -0.0336436816, -0.1101970598, 0.1501938403, -0.0293292236, -0.0904460251, 0.1470146477, 0.0403908528, -0.1597296447, -0.0073517426, -0.0900029168, 0.1345544159, -0.1592441797, 0.0847206861, -0.1952443421, -0.1272539049},
			{0.1333305836, 0.1013805047, -0.1675260216, -0.1260289997, 0.0037940075, 0.0325127319, -0.0450932868, 0.0458116010, -0.0754450485, -0.0257956814, -0.0562249795, -0.0390022732, 0.1167532504, 0.1660368443, -0.0265865624, -0.1886309534, -0.1244797930, -0.0790875182, -0.0499181561, -0.1711915880, -0.0958390683, -0.0357675590, 0.0464172289, -0.0592562705, -0.0774973556, 0.0090539511, -0.0847683772, 0.0433286391, 0.0712234750, -0.0175477657, 0.1372169256, 0.0018149902, 0.1509331763, -0.0206555184, -0.0283067785, -0.1132502779, 0.0246510580, -0.1563571543, -0.0714296177, -0.1148268953, -0.1871405244, -0.1776247323, -0.0615949631, 0.0295489021, 0.0694644973, -0.0495394655, -0.1232405156, 0.1844707280, -0.2121375203, 0.0700218007, -0.0566310585, -0.0904402137, -0.1394270062, -0.0248326976, 0.1218866780, 0.0733230188, 0.0031365131, 0.0663007349, 0.1856960356, -0.1515844911, 0.0546855070, 0.1652205288, -0.0116412900, 0.0180353038, 0.1517328769, 0.1274966002, -0.0733513087, 0.1846004725, 0.0183770023, -0.0443378501, -0.0371430926, 0.1230693534, -0.0501809232, -0.0484422408, -0.0109953759, 0.1682837307, -0.1895699799, 0.0451487042, -0.0278374199, -0.1819828600, -0.0309275910, 0.2114483118, -0.0563864559, 0.1159895733, -0.0609901585, -0.1311711967, 0.1468525976, 0.0859609246, 0.0184583254, 0.1707592756, 0.1796022952, -0.0342772119, -0.1044321060, -0.0985634029, 0.0069239442, -0.0489340536, -0.0503047779, -0.1805081815, 0.1948561519, -0.0874569342, 0.0289533883, -0.0718226209, 0.0985396355, -0.1441724300, -0.0657765567, -0.0252725761, -0.0790044144, 0.0426035151, 0.1021277457, -0.0245384704, -0.0720756128, 0.0779206976, -0.1792459935, 0.1130388379, -0.0209576897, 0.0249612723, 0.1076052636, -0.0764954165, -0.1186688468, -0.0093343556, 0.0715687349, 0.1097136065, -0.0736146122, 0.1645192802, 0.1716452092, -0.1089826077, 0.0968656316, 0.0861058757},
			{0.2951041162, 0.3098070323, -0.0830255374, 0.1287377477, -0.1216892675, 0.0895519108, -0.0165409856, 0.1238793656, 0.2513211071, 0.1816983223, 0.1009118631, -0.3358927369, 0.1046617478, 0.0757395551, -0.0012943695, 0.3041404188, 0.3391807973, 0.3483388424, 0.2500373721, -0.2774237990, 0.2279689312, -0.0293528978, 0.0749817938, -0.2828887403, 0.2579447627, -0.3553901911, -0.3269500136, -0.1900350302, 0.1466423273, 0.0700354278, 0.1980309635, 0.0216583069, -0.2977095842, -0.1345957667, 0.2161901295, -0.0270572305, -0.0272302795, -0.1917656511, 0.3011261821, 0.0000789517, 0.2038738728, 0.0364800468, -0.2477173209, 0.0193196088, -0.0119647682, -0.3624085784, 0.0986856818, -0.1018478796, 0.3135099709, 0.0838961601, 0.0191500224, 0.0658935755, -0.1134325117, -0.2970645726, 0.2485681027, -0.0818619281, -0.0245369878, 0.0278858226, -0.0644918606, -0.1691581309, -0.2362356633, 0.0035588732, 0.0676334277, -0.0440517329, -0.3357980847, 0.1699756831, 0.0011673173, -0.0542836338, 0.2297269702, 0.2135993093, 0.1591318399, 0.3050838411, 0.0666509420, -0.0384602025, 0.2331164479, -0.3485724926, 0.2372709364, 0.3265466988, -0.0957386121, 0.1341056228, 0.2936316431, -0.1779973507, 0.0245003290, -0.0784712061, -0.1101874784, -0.0102295848, 0.0861272290, 0.2758161426, 0.2954672575, -0.0968221202, -0.3271344900, 0.0175516903, 0.0345278084, -0.0188744944, 0.3555937707, -0.3364298046, 0.2623836100, 0.3062994480, -0.2687206566, -0.0930934474, 0.0040484457, 0.3349581659, 0.0856311470, 0.3586455584, 0.1851019859, -0.1682148576, -0.0129449423, 0.2809225321, -0.3538305759, 0.3553587198, 0.2755975723, 0.2716276646, -0.1515380740, 0.2654953897, 0.3221899569, -0.1214718223, 0.2429737300, -0.2439451367, -0.3485857546, -0.0622608550, 0.1548113674, -0.3219476938, 0.1407722980, 0.1139916554, 0.0117876194, -0.3656401932, -0.1815159768, 0.3386005163},
			{-0.1271409392, 0.0915753543, 0.0021796133, 0.0280003212, 0.0067371954, -0.0702315494, -0.0767766684, -0.1432636380, -0.0188041721, -0.0383972041, -0.0327829719, -0.1135058999, 0.1362114698, -0.0477315672, -0.0531304106, -0.0542789884, 0.1595915407, -0.1426621825, -0.0521845259, -0.2079357356, -0.0742202997, -0.1059012190, 0.0671201795, 0.0996587351, 0.0058694375, -0.0451357141, 0.0111926682, 0.0887047797, -0.0684862733, 0.1316515803, 0.1715846509, -0.1544561684, -0.1383396089, 0.2132364362, 0.1342050433, -0.0307349637, -0.0286802817, 0.1778846532, -0.2077163756, -0.0820486546, 0.0367895477, 0.1042100415, -0.0249580704, -0.0972559229, -0.0743906945, -0.0493121073, 0.1472181082, 0.1273715198, 0.1160159782, 0.0029230018, -0.1098295078, -0.0575981550, -0.0594752207, -0.0723868459, -0.0469716229, -0.0197138395, 0.1056255922, 0.1420480162, -0.0042574499, -0.0514448062, -0.1523634344, 0.1761326641, -0.0865890682, 0.1457578540, 0.0044349716, -0.0665646568, 0.1680135578, 0.0767211914, 0.0191229191, 0.0267026722, -0.0046069990, -0.0772230998, -0.1941954643, 0.0450820997, -0.1206806302, 0.1708760560, 0.1436296850, -0.1850327998, -0.0069541344, 0.1291763783, -0.0294863377, -0.0472688712, 0.0326945446, -0.1479316503, -0.0108169597, -0.0524179116, -0.0886195898, 0.0503995270, 0.0440894887, 0.1869000793, 0.0827464014, 0.0782068893, 0.0549559109, 0.0971068740, -0.1625543982, 0.0404922664, 0.1293994933, -0.0952530205, -0.0998551473, -0.0544868223, 0.1457251906, 0.0345481113, -0.0761505365, -0.0087686116, -0.1808957011, 0.1533703655, 0.1952505112, -0.0695217252, 0.0539847910, 0.1698874235, 0.1271973699, -0.0655933395, 0.1671461016, 0.0626019165, -0.0398395732, -0.1550187469, -0.0500909425, 0.0883611888, -0.1668207049, -0.0090333736, 0.0746912807, 0.1961481720, 0.0542007089, -0.0980814844, -0.0089146988, 0.1875842512, -0.0634074062, -0.0764792189},
			{0.0416544527, 0.0113192806, -0.0854790136, 0.0654751509, -0.0811315775, 0.0286410283, -0.1425640136, 0.1623874903, 0.1924761981, -0.0692768693, 0.0048226425, -0.1037800834, 0.1595190167, 0.0661940351, -0.0771884620, -0.1923501939, -0.0413965136, -0.0683862865, 0.0424219295, 0.0419245362, -0.0705759376, 0.1102520749, -0.0233760625, 0.0748918205, -0.0025973415, -0.1270657629, 0.1271960288, -0.1298678964, -0.0883544460, 0.0201122873, 0.0387909636, -0.1431290656, -0.1402758658, 0.0663851574, -0.1053279489, 0.0512719266, -0.0955329984, 0.1334897429, 0.0382228047, 0.1166052520, -0.1580465287, -0.1677203327, -0.1181449741, -0.0414970145, -0.1492951661, -0.1491608769, -0.0421656892, 0.0232252534, 0.1027897149, -0.1501366347, -0.1086316630, 0.1579126269, 0.1850688010, -0.0477983430, -0.0770559758, 0.1878704876, -0.0268177092, 0.1204981655, -0.1116010025, 0.1770349145, 0.0170590077, 0.0012088588, -0.0172894001, 0.1010230556, 0.1713914424, -0.0508803129, -0.1569470763, -0.1328500360, -0.0719697177, -0.0304084215, -0.1211519167, 0.0276810676, 0.1500696987, 0.1821432412, -0.0783793703, 0.0736185014, 0.1644218117, -0.0552464649, 0.1594398916, -0.1015600264, -0.1494744867, -0.1732478142, 0.1484591514, 0.0372577272, 0.0534745082, -0.1767430753, 0.1362491399, 0.0599665977, 0.0969835967, 0.0394815803, 0.1158043668, 0.0012121456, -0.1508869976, -0.0398496464, 0.1766320914, -0.0282862540, -0.1008376777, 0.1261199117, -0.0981330350, -0.1097893864, 0.0659633502, 0.1829836220, -0.0108259525, 0.0754469559, 0.0096935257, 0.1150390282, 0.1569097489, 0.0750219598, 0.0967393667, -0.0298798122, -0.0372272581, -0.0813830048, 0.0704049543, -0.1680481434, 0.1390404552, 0.1470444351, -0.1371927112, 0.1530493200, -0.1175010428, -0.0635390505, 0.1079202592, -0.0601689965, -0.1846424490, 0.0954962522, 0.1365960985, 0.1547067463, -0.1465624720, 0.1048353538},
			{0.2646137476, 0.1796922088, -0.2066963315, 0.3494226336, -0.1094186902, 0.1774509549, 0.2393790185, 0.2011381835, 0.1680946052, 0.2743687034, 0.0713950247, -0.2888882458, 0.1905969232, 0.2799443007, 0.3549738824, 0.0296975560, 0.1517202258, 0.0102852983, 0.3278424144, -0.1461765170, 0.2629337907, -0.1791300774, 0.1531687677, -0.3179689646, 0.1268430054, -0.1596526951, -0.1991502345, -0.1017312333, 0.3572864532, 0.1673637927, 0.1305968612, 0.2239630520, -0.3494264781, -0.0550296195, 0.2295804024, 0.0215069614, -0.2178623378, -0.1670878232, 0.0562499836, 0.1424057037, 0.3349085450, 0.0668832436, -0.2190747261, -0.3072577119, 0.1924578249, -0.0680216923, 0.2225602716, -0.0725185499, 0.3562932014, 0.2629163265, 0.3045601249, -0.0092326207, -0.0597313978, -0.2423757166, 0.1197861061, -0.0224816184, -0.1146259159, 0.2404881418, -0.2789777815, -0.3111862838, -0.1145179123, 0.2848716378, 0.1974419802, -0.3141641915, -0.0405805185, 0.0534970574, -0.0977908820, -0.0950701162, 0.1387382299, 0.3077406883, 0.1251098961, 0.0360672697, 0.2164526731, -0.1072452590, 0.2857455015, -0.2354586869, 0.0149763385, 0.0990176350, -0.2218349874, 0.3421882689, 0.0351277217, -0.3065758646, 0.3118921816, -0.3456588387, -0.1931900382, -0.0666926131, 0.2576206028, 0.3565843701, 0.2449480593, -0.2837041020, -0.3314507008, 0.4092123210, 0.2012520134, -0.3745803535, 0.3230311275, -0.1212410107, 0.1260815710, 0.1859375089, -0.2645074427, -0.1119569317, -0.2774163187, 0.2061005384, 0.0753899813, 0.3421594501, -0.0419143550, -0.3192943931, -0.1125318408, 0.2268607169, -0.2304471135, 0.2887260318, 0.1854165047, 0.1067176536, -0.1684345156, 0.2962868810, 0.2081130594, -0.2655390501, 0.0544188619, -0.1832074970, 0.0341468453, -0.3388244212, 0.2069187164, -0.0802665502, 0.2579137385, 0.2091380358, -0.2319204658, -0.0656571761, -0.0242235009, -0.0008005954},
			{0.1180609465, 0.0634856299, -0.2079364806, 0.2263410538, -0.3430500925, 0.2831272483, 0.2025213391, 0.1788086891, 0.2279423773, 0.2928725481, 0.1981821358, -0.1415299177, 0.3293559551, -0.0050989767, 0.3439371586, 0.2676957548, 0.3126716018, 0.0000348617, 0.1756765395, -0.2509776652, 0.1873845458, -0.1645160466, 0.0249909293, -0.0643535480, 0.1704168767, -0.2959206104, -0.0430074334, 0.0283511356, 0.0645151362, 0.0185369588, 0.1298095733, 0.0534904078, -0.0134586580, -0.3305453062, 0.0533718243, 0.0885062516, 0.0051092738, -0.3507544696, 0.3456014693, 0.0526876971, 0.2635710835, -0.0196935497, -0.2644434273, -0.3355858028, 0.2748868763, -0.3339125514, 0.1914075911, -0.0869320482, 0.0919990614, 0.2680287063, -0.0141531052, 0.2581225634, -0.3535120785, -0.3197826147, 0.1862371415, -0.2546519041, -0.1956089288, 0.1528944969, -0.1766766906, -0.2953332067, -0.2367568165, 0.2554302514, 0.0117245931, 0.0012918302, -0.1962274015, 0.1032516733, -0.3008464277, -0.2837502658, 0.1449403167, 0.1406193823, 0.3273126781, 0.2276439220, 0.2799140513, -0.2481776029, 0.3040489852, -0.1088708416, 0.2448495775, 0.1793844402, -0.1376793087, 0.3331038654, 0.0703653321, -0.1993616819, 0.1936640441, -0.1870260835, -0.1474405527, -0.3240795434, 0.1608824879, 0.3319014907, 0.3527477980, -0.3472807407, -0.1498914808, 0.0091610374, 0.2120160758, -0.1903428435, 0.1942611188, -0.2843886614, 0.2353892773, 0.3088155389, -0.0667916387, -0.3277220130, -0.2881658375, 0.1357592791, 0.1453199238, 0.3429635167, 0.2969299257, -0.3636811376, -0.1344340742, 0.1873962283, -0.1269756705, 0.2349494249, 0.3526115716, 0.0341039747, -0.2998283803, 0.1785516590, 0.1930610836, -0.3338288367, 0.0493050218, -0.3515620530, -0.1177243218, -0.0025652896, 0.0526317209, -0.0530657284, 0.1638185084, 0.2118244469, -0.2096792608, -0.2630258799, -0.2667761445, 0.2388204932},
			{-0.0303638298, -0.0545567647, 0.1779757440, -0.1580188721, 0.1973564327, 0.0397525281, -0.1741922796, -0.1259248853, -0.1557646394, -0.0206261892, 0.1034154072, 0.1783189327, 0.2018927932, 0.1063587144, -0.0521542653, 0.1034401208, -0.1882149875, -0.1633949280, 0.0967728049, 0.0570164695, 0.0351358242, -0.0489018001, -0.1964584142, 0.0629307330, 0.0652132407, 0.1904931217, -0.0150223486, -0.1350925565, 0.0385541990, -0.1959444582, -0.1192383096, -0.1265085042, 0.0661781952, 0.0695036873, -0.1937077045, -0.0753386095, -0.0906308070, -0.1783976704, -0.1050580218, -0.1854632497, 0.0707030818, 0.1438672841, 0.1175466329, 0.0653564855, -0.1036683768, 0.0933264419, 0.1494021565, -0.0182801019, -0.1205202863, -0.0058283526, -0.0484810732, 0.0205671359, -0.1322863996, -0.0605125055, 0.0157233961, -0.0160352066, 0.0194456447, -0.1208936200, 0.0211824756, -0.1181082875, -0.1192107424, 0.1196992919, 0.1274425089, 0.1648933291, 0.0170375742, 0.1401705742, -0.0109144272, 0.1764044017, -0.1627020836, 0.1624449342, -0.0805063024, -0.1687725037, 0.0238573197, 0.1756468564, -0.0847585797, 0.1888158470, 0.0859325305, -0.0008481054, 0.1997921765, -0.0940383300, -0.0081082638, -0.1590213478, 0.0477074534, -0.1032932177, 0.1566795707, 0.1621451676, -0.0785951242, 0.0243173391, 0.0622585006, -0.1103732064, -0.1537364572, 0.0229058694, -0.1015283465, 0.1492145807, 0.0852260664, -0.1770194471, -0.0521934293, -0.0571340509, 0.0375720300, 0.1949930340, 0.0045177303, 0.0170937404, 0.0778520554, 0.1258178502, -0.0245569274, -0.1297820508, -0.1187068969, 0.0297923721, -0.0008100350, -0.0524180271, -0.0252270103, -0.0020417394, 0.0603917688, -0.1895128042, -0.0688666105, 0.0089250403, -0.1446743608, 0.1175305918, -0.0464138761, 0.0225259345, -0.1441144198, -0.0352383703, 0.0840451270, -0.0415214859, -0.0804309845, -0.1339748949, 0.1431989819, -0.1687613130}};

	for(int i = 0; i < 32; i++)
	{
		for(int j = 0; j < 128; j++) dense1_out[i] += (conc_out[j] * weights[i][j]);
//		dense1_out[i] += bias[i];
	}
}

void dense2(float dense1_out[32], float dense2_out[2])
{


	float bias[2] = {0.11866857111454010010,
			0.09219712764024734497};
	for(int i = 0; i < 2; i++) dense2_out[i] = bias[i];

	float weights[2][32] = {{0.5138165355, -0.1623757631, -0.0711948276, 0.1452441365, 0.4180110395, -0.3517730534, -0.3912391365, 0.6188955903, -0.0324144699, -0.3678047955, -0.2624394596, 0.3956407905, -0.3738060296, 0.4990345538, 0.0090192240, 0.5509101152, 0.4748552740, -0.3237819970, -0.2986312211, 0.1163920835, 0.5352066159, -0.2858496606, 0.1405587494, 0.1333327144, -0.2021811903, -0.1840922683, 0.4620653093, 0.0074916468, -0.3726592064, 0.2343184054, 0.4357042015, -0.3137394488},
			{0.0693828315, 0.3305454254, -0.2498344630, 0.3858488798, 0.5156980753, 0.0717940480, 0.3286871910, -0.2338481992, -0.3408131301, -0.2827126682, -0.2778002918, 0.1026007384, -0.2652654350, 0.2215313613, -0.0246308185, -0.1355365366, 0.1904428899, -0.3529691398, 0.2990996838, 0.5474835634, -0.2552721500, -0.0571098141, 0.5045768023, 0.4947380424, 0.3305200040, -0.0701599121, 0.1744708568, -0.0233617593, 0.1209000349, 0.2320610583, 0.3479657471, -0.2040793747}
};
	for(int i = 0; i < 2; i++)
	{
		for(int j = 0; j < 32; j++) dense2_out[i] += (dense1_out[j] * weights[i][j]);
//		dense2_out[i] += bias[i];
	}
}

void dense(float* input1, float* input2, float* output)
{
#pragma HLS INTERFACE m_axi port = input1 depth = 64
#pragma HLS INTERFACE m_axi port = input2 depth = 64
#pragma HLS INTERFACE m_axi port = output depth = 2
#pragma HLS INTERFACE s_axilite port =return bundle = CTRL
	float conc_out[128];
	int it = 0;
	for(int i = 0; i < 64; i++)
	{
		conc_out[it] = input1[i];
		conc_out[it+64] = input2[i];
		it++;
	}

	float dense1_out[32], dense2_out[2];

	dense1(conc_out, dense1_out);
	dense2(dense1_out, dense2_out);
	output[0] = dense2_out[0] - 5.89;
	output[1] = dense2_out[1] - 0.98;

}
